-0.027470486
0.021443404
0.06085253
0.119789355
0.060467668
0.41784823
0.087483585
0.06683471
0.118602954
-0.09590116
0.031482045
0.15377112
0.055238336
-0.01103762
-0.0960853
-0.21667114
0.050758682
0.014584607
0.023105385
-0.20080821
0.15926792
0.16000298
-0.02742496
-0.09538886
0.3779659
0.17953108
0.030811345
0.09025718
-0.122236654
0.0010496164
0.04438388
-0.025280638
0.03900249
-0.10165849
0.24142128
0.0132306535
0.09156292
0.04469215
-0.1494867
0.06699133
0.15293209
0.21746288
0.04486576
0.2512973
0.112154104
-0.040915582
-0.016321754
0.109754495
0.0055009085
0.25251168
0.054516956
-0.01178428
0.14345446
0.003954721
-0.05777747
-0.09506363
0.08994125
0.20641547
0.13454579
-0.09758058
0.05655222
-0.11207616
0.13376708
0.17346433
-0.04104236
0.11664549
-0.11424354
-0.18396278
-0.035002884
0.27068615
0.2972286
-0.0149017265
0.06467416
-0.009277871
0.21105269
-0.061538972
0.15529644
0.062143706
-0.30839977
0.0012010083
0.067743726
0.085465394
0.09279917
-0.18528986
0.1333222
0.12886879
0.0032011413
-0.10633405
-0.11638606
0.23498258
0.043467365
0.26992163
0.19950472
0.32775745
0.24985242
-0.0075384676
0.10132049
-0.09728991
-0.08013106
-0.068754084
0.026823737
0.07423826
0.18746412
0.1415594
-0.10624722
-0.014251689
0.08059645
0.19650404
-0.012620327
-0.002423787
6.273386E-4
0.22027105
0.21111287
-0.086235456
0.026934095
0.07223877
-0.050527025
0.2452427
0.05818867
-0.122382015
0.1345604
-0.046501618
0.08865656
0.40289623
0.039855115
0.075327076
0.5446411
0.032663725
0.15989345
0.024983022
0.015086551
-0.012448536
0.15954389
-0.12605017
0.06630542
0.0076862015
0.037367295
0.24755748
0.081526406
0.022601804
0.20055695
0.0073789
0.27637535
0.08811321
-0.042927824
0.20615564
0.17896736
-0.015390163
-0.082255565
0.085016325
0.032823883
0.16146141
0.32226717
0.18937244
-0.073836625
0.13138537
0.09597827
-0.023413768
0.08065812
0.23932505
0.15914172
0.012722587
0.11067695
0.070877075
0.011660609
0.0406741
0.14853173
0.371565
-0.07458736
-0.0011106265
0.016943438
0.10766024
0.2195929
0.08149486
-0.020025693
0.28858617
0.037879888
-0.03673133
0.22998507
0.18125828
-0.19745222
0.20036009
0.08484558
0.06292453
0.0067011863
0.21664682
0.19027442
0.020447722
-0.03709319
0.015976692
0.10577563
-0.016488759
-0.08129133
-0.24038762
0.042871837
-0.077567525
-0.10529159
0.19484352
0.2321531
0.054066315
0.077144295
-0.11577305
0.3338618
0.06989134
0.081918545
0.11286926
0.16935363
0.041646827
-0.021222143
0.012095924
-0.018851375
0.14829609
-0.07199338
0.18107745
0.001845482
0.12232207
0.13913298
0.03875827
0.034836534
0.3358259
0.09690418
-0.08840655
0.089873105
0.010932677
-0.12935074
-0.010266929
0.122683175
-0.04404455
0.103031345
0.034495495
-0.11225804
0.1596999
0.18406032
-0.042510822
0.07228912
0.003156974
0.269379
0.17946728
-0.0014575723
0.29933703
0.016997464
-0.041913193
0.22647339
0.28758818
0.07803168
0.074539855
0.12266091
-0.018068856
0.24860464
0.13072923
-0.006078092
-0.16635387
0.11703688
-0.06408294
0.028580489
0.1863591
-0.023989134
-0.12764272
-0.11963087
-0.0101665985
0.012512409
0.1520092
-0.09179576
-0.14859407
-0.121569104
-0.03130294
-0.08139111
0.068107694
-0.07636803
0.14069173
0.05365974
0.011738276
-0.118064344
-0.06706902
-0.094439775
0.08943587
0.08432977
-0.06118606
-0.048320226
0.045041677
0.1295314
-0.13018292
-0.1480118
-0.08001473
0.068608746
-0.020043181
0.014315516
-0.020828463
-0.14616287
-0.05960865
-0.062632024
-0.12887326
-0.06591662
-0.022512738
0.050323438
-0.07441356
-0.07204407
0.040057708
0.03933098
-0.045881577
-0.16199577
-0.07163339
-2.0398622E-4
-0.077888906
-0.10022948
-0.13081028
0.007414986
0.014298181
-0.14705616
0.0033201734
-0.08675687
-0.10217299
0.15019135
0.12956539
-0.13559897
-0.07130118
0.014197211
-0.048472814
0.13130887
0.23692639
-0.023117498
0.02124147
0.026744727
0.14624314
-0.10269642
-0.091392584
-0.1624444
-0.14283776
-0.1451713
-0.00487867
0.019082597
-0.06335475
-0.09568461
-0.11287865
-0.1727452
-0.07376487
-0.07024776
0.10950917
-0.2493096
0.04571139
-0.11314463
-0.19195652
-0.046569124
-0.0841376
-0.012673876
-0.047151685
-0.10008753
0.10610068
-0.1048143
0.039896224
-0.14985982
0.009698334
-0.046092317
-0.052190453
-0.09827447
-0.12719643
-0.22607155
-0.032004494
-0.047496434
0.011273497
0.003975513
-0.050231565
0.0178541
-0.008289362
-0.12371195
0.043026406
-0.027147228
0.04103772
-0.006059655
-0.13122639
0.19123326
0.002975904
-0.07456265
-0.0023366567
-0.07803672
0.0049388846
-0.17171727
-0.016129425
-0.053273875
-0.12898791
-0.017074384
0.011055503
0.14314045
0.07003435
0.0651445
-0.109841876
-0.024829762
-0.08241165
0.043497223
-0.12498779
0.07209568
-0.05022016
-0.028850935
-0.09655114
-0.01936866
0.12466899
-0.12385779
-0.0076137907
-0.08473048
-0.0809765
-0.11446555
-0.019115962
-0.09624115
0.029731225
0.08754135
-0.06481591
-0.05481096
-0.0677409
0.111590885
0.059798762
0.008857443
-0.01498839
-0.2122234
0.0899834
0.09645298
0.03959077
-0.18435636
-0.0040692263
-0.13197796
-0.0899159
-0.0029623793
-0.18192622
-0.119324245
-0.01780622
-0.090255976
0.03445275
-0.1885711
-0.13564858
-0.05707842
0.009684809
-0.037393346
-0.04929757
0.039781455
-0.14226085
-0.1430621
-0.06499612
-0.008170603
0.28402293
-0.12541825
-0.11153927
-0.016516363
0.038526848
-0.0397186
-0.19841069
-0.11983792
-0.07300697
-0.15554778
-0.012978876
-0.029795205
0.120954834
-0.1324145
-0.16052069
0.055330426
0.09971656
0.02620403
0.026690263
-0.12162927
-0.0052905385
0.052711383
0.2504992
-0.08801302
0.028967492
-0.08379432
-0.014454938
0.24445783
0.0604065
-0.08912513
0.071622714
0.006312721
-0.085830905
0.096030526
-0.10784706
0.013993126
-0.105278134
-0.0030081247
-0.008354197
-0.08105493
-0.20943674
-0.09230033
-0.019592486
0.0928626
-0.0953324
0.11974362
-0.044019777
-0.13450184
0.020117907
-0.01792225
-0.22230916
-0.1077421
0.0329846
-0.1710972
-0.012139815
-0.040476564
-0.11859474
-0.024400838
0.032988366
-0.14809673
-0.027127499
-0.08974228
0.015792914
-0.23355253
0.01667989
-0.06672974
-0.06520797
-0.0010881936
-0.10020974
-0.030589845
-0.10378147
-0.0047873375
-0.1277811
0.013328904
-0.06614769
0.18068814
0.09223814
0.053095598
0.14977545
0.027063942
0.15054199
-0.14906466
-0.28743485
0.010052144
0.06359912
-0.2583877
0.17057107
-0.083982415
0.0013911491
0.073720016
0.12327987
-0.1647811
0.40409523
0.4136968
-0.2648977
0.31031883
-0.056778625
-0.10268455
-0.116521455
0.109727584
0.054877214
-0.06951047
0.09705143
0.07123613
0.25260007
0.031680655
0.031140173
0.118675984
0.3226225
-0.077733055
-0.23478927
-0.39849776
0.16738355
0.2773818
-0.11817904
-0.16623966
-0.16927695
0.25434646
-0.2063159
0.15590733
-0.12290144
-0.22088958
-0.30197546
0.034087986
0.015983768
-0.068351515
0.324117
-0.0071301074
-0.16889408
0.3073502
0.21926317
0.5055953
0.008272118
-0.09612166
0.035928257
-0.09325016
-0.13471268
0.27211323
-0.25553605
-0.18616433
-0.09411787
0.43904784
-0.15115194
-0.09733602
0.07996619
0.012273762
3.1891116E-4
-0.09363132
0.0721918
0.1355823
-0.07586526
0.10207086
0.03979811
-0.13251187
-0.13889085
-0.06002768
0.41598725
0.152362
0.0042100972
-0.023308512
-0.10395052
0.032824405
-0.07215851
0.37288052
-0.11499899
-0.0601911
-0.200788
-0.038482383
-0.05793189
0.041977465
-0.22882384
0.0577826
-0.1615893
0.28838086
0.22584948
-0.029554354
-0.2827243
0.30903566
0.19259381
-0.26236522
-0.10665152
0.2101859
-0.29111257
0.14295392
0.19208007
0.15152802
0.084353834
0.36017746
0.14007704
0.24641478
-0.06153595
-0.0522947
-0.15552533
0.071682334
-0.14273413
-0.0034714339
0.05201301
0.11443033
-0.041800175
0.09397267
0.031756066
-0.0047147013
-0.092122324
0.30380186
0.02255113
-0.14848487
0.23116213
-0.18435276
0.1297499
-0.041961048
0.09393513
0.11994437
0.2701004
0.16318758
-0.05082237
0.08664458
0.22818863
-0.010608139
0.24821734
-0.07833104
-0.04977386
-0.016882801
0.0041400557
0.18621272
0.025451815
0.080937505
-0.07541997
0.13951324
0.3404641
0.18288782
-0.04311983
-0.011253543
-0.39468253
-0.29801798
-0.07139346
-0.39154488
-0.29130703
0.053875316
-0.07047797
0.0085834125
-0.22807455
-0.09196533
0.18218671
-0.032398175
-0.09389311
-0.03389266
-0.16984345
0.15873033
0.2951412
0.124202654
-0.2611929
-0.11869566
0.012439298
-0.1133476
0.1768351
-0.18922313
0.3550931
-0.1976779
-0.013022652
-0.16543047
-0.17050046
-0.49825394
0.06546656
0.020656744
0.1260219
0.14734244
0.15669519
-0.30216905
-0.26986703
-0.10849128
0.12896155
0.042996705
0.22951832
0.027331425
-0.3086927
0.09340491
0.24051097
-0.08683039
0.3655447
0.06139097
0.07810324
0.19700423
-0.018877419
0.35316065
-0.21087378
-0.31693378
0.049621142
0.07305003
-0.025584506
-0.070740394
0.043342475
-0.08991694
-0.48163113
0.14307229
0.1770088
0.050209943
0.29558185
-0.02972956
-0.2521988
-0.16441086
0.23089409
0.39610708
-0.14862953
-0.15701215
-0.09799556
0.23991905
-0.27079174
-0.253089
0.28416577
0.006133947
0.14616731
-0.06566229
-0.027566005
-0.34075105
0.1480608
0.32451078
-0.27432927
0.49433407
0.05420375
-0.20578365
-0.13891754
0.3082144
0.17717563
0.20441113
0.08370054
-0.29282677
-0.012646236
-0.20423497
-0.5018638
-0.09948469
0.36144006
